{"learner":{"attributes":{"best_iteration":"3","best_ntree_limit":"4","best_score":"0.954755985015805","scikit_learn":"{\"n_estimators\": 40, \"objective\": \"rank:pairwise\", \"max_depth\": 6, \"max_leaves\": null, \"max_bin\": null, \"grow_policy\": null, \"learning_rate\": 0.1, \"verbosity\": null, \"booster\": null, \"tree_method\": \"approx\", \"gamma\": 0, \"min_child_weight\": 1, \"max_delta_step\": null, \"subsample\": null, \"sampling_method\": null, \"colsample_bytree\": null, \"colsample_bylevel\": null, \"colsample_bynode\": null, \"reg_alpha\": 0, \"reg_lambda\": 1, \"scale_pos_weight\": null, \"base_score\": null, \"missing\": NaN, \"num_parallel_tree\": null, \"random_state\": null, \"n_jobs\": null, \"monotone_constraints\": null, \"interaction_constraints\": null, \"importance_type\": null, \"gpu_id\": null, \"validate_parameters\": null, \"predictor\": null, \"enable_categorical\": true, \"max_cat_to_onehot\": null, \"eval_metric\": \"ndcg\", \"early_stopping_rounds\": 5, \"callbacks\": null, \"kwargs\": {\"seed\": 77}, \"evals_result_\": {\"validation_0\": {\"ndcg\": [0.9493249419829853, 0.9518398982020694, 0.9518398982020694, 0.954755985015805, 0.954755985015805, 0.9542212679636085, 0.9542212679636085, 0.9542212679636085, 0.951356888053237]}}, \"_estimator_type\": \"ranker\"}"},"feature_names":["calling_service","request_path","service_class_name","similarity","bm25_score","prev_redirects_service","prev_pos_feedback_service","prev_neg_feedback_service"],"feature_types":["c","c","c","float","float","int","int","int"],"gradient_booster":{"model":{"gbtree_model_param":{"num_parallel_tree":"1","num_trees":"9","size_leaf_vector":"0"},"tree_info":[0,0,0,0,0,0,0,0,0],"trees":[{"base_weights":[-0E0,6.1002785E-1,-7.5778544E-1,8.274112E-1,3.4146342E-1,-8.666667E-1,5.5555556E-2,8.4615386E-1,-5E-2,2.5E-1,9.090909E-2,-1.6666667E-1,-8.9387757E-1,-1.8518518E-1,6.363636E-2,8.645833E-1,-2.0000001E-2,-1.5555556E-1,4.2574257E-1,-0E0,-5E-2,-7.752809E-1,-9.493671E-2,2.9411766E-1,-8.3333336E-2,9.166667E-1,4.6153846E-1,6E-1,-3.5135135E-1,2.753623E-1,7.058824E-1,-5E-2,2.5E-1,-8.947368E-1,-5.294118E-1,8.3333336E-2,-7.1428575E-2,9.3589745E-2,5.714286E-2,6.52174E-2,-6.0000002E-2,7.1428575E-2,2.0000001E-2,1.4285715E-2,-6.0000002E-2,9.433962E-3,7.777778E-2,9.090909E-2,2.857143E-2,5E-2,-0E0,-3.3333335E-2,-9.245283E-2,-0E0,-6.923077E-2],"categories":[0,1,2,3,4,6,7,8,9,11,12,13,14,15,16,17,18,19,20,21,22,23,24,25,26,28,29,30,31,32,33,34,35,36,38,39,40,41,42,43,45,46,47,48,49,51,52,53,55,56,57,59,60,61,65,68,70,71,72,73,74,75,76,77,80,81,82,83,84,85,86,87,88,89,90,92,93,94,96,97,98,99,100,101,103,104,105,106,107,108,109,111,112,115,116,117,118,120,121,123,124,125,127,128,131,132,134,136,137,138,139,0,1,2,3,4,6,7,8,9,11,12,13,14,15,16,17,18,19,20,21,22,23,24,25,26,27,28,29,30,31,32,33,34,35,36,38,39,40,41,42,43,45,46,47,48,49,50,51,52,53,54,55,56,57,58,59,60,61,63,65,66,68,70,71,72,73,74,75,76,77,79,80,81,82,83,84,85,86,87,88,89,90,92,93,94,95,96,97,98,99,100,101,103,104,105,106,107,108,109,111,112,115,116,117,118,120,121,123,124,125,127,128,129,131,132,134,136,137,138,139,0,1,2,3,4,5,6,7,8,9,10,11,12,13,14,15,16,17,18,19,20,21,22,23,24,25,26,27,28,29,30,31,32,33,34,35,36,37,38,39,40,41,42,43,44,45,46,47,48,49,50,51,52,53,54,55,56,57,58,59,60,61,62,63,64,65,66,67,68,69,70,71,72,73,74,75,76,77,78,79,80,81,82,83,84,85,86,87,88,89,90,91,92,93,94,95,96,97,98,99,100,101,102,103,104,105,106,107,108,109,110,111,112,113,114,115,116,117,118,119,120,121,122,123,124,127,131,134,137,138,5,0,1,3,4,5,3,139,0,1,2,3,4,6,7,8,9,11,12,13,14,15,16,17,18,19,20,21,22,23,24,25,26,27,28,29,30,31,32,33,34,35,36,37,38,39,40,41,42,43,45,46,47,48,49,50,51,52,53,54,55,56,57,58,59,60,61,63,65,66,67,68,70,71,72,73,74,75,76,77,79,80,81,82,83,84,85,86,87,88,89,90,91,92,93,94,95,96,97,98,99,100,101,102,103,104,105,106,107,108,109,111,112,114,115,116,117,118,120,121,123,124,125,127,128,129,131,132,134,136,137,138,139,62,0,1,2,3,4,5,6,7,8,9,10,11,12,13,14,15,16,17,18,19,20,21,22,23,24,25,26,27,28,29,30,31,32,33,34,35,36,37,38,39,40,41,42,43,44,45,46,47,48,49,50,51,52,53,54,55,56,57,58,59,60,61,62,63,64,65,66,67,68,69,70,71,72,73,74,75,76,77,78,79,80,81,82,83,84,85,86,87,88,89,90,91,92,93,94,96,97,98,99,100,101,102,103,104,105,106,107,108,109,110,111,112,113,114,115,116,117,118,119,120,121,122,123,124,125,126,127,128,129,130,131,132,133,134,135,136,137,138,139,58,79,95,129,0,1,2,3,4,5,6,7,8,9,10,11,12,13,14,15,16,17,18,19,20,21,22,23,24,25,26,27,28,29,30,31,32,33,34,35,36,37,38,39,40,41,42,43,44,45,46,47,48,49,50,51,52,53,54,55,56,57,58,59,60,61,62,63,64,65,66,67,68,69,70,71,72,73,74,75,76,77,78,79,80,81,82,83,84,85,86,87,88,89,90,91,92,93,94,95,96,97,98,99,100,101,102,103,104,105,106,107,108,109,110,111,112,113,114,115,116,117,118,119,120,121,122,123,124,126,127,128,129,130,131,132,133,134,135,136,137,138,139,0,51,52,53,80,116,127,134,28,53],"categories_nodes":[0,1,5,11,12,15,23,25,26,27,28,32,33,34],"categories_segments":[0,111,231,361,362,367,368,369,494,495,634,638,777,785],"categories_sizes":[111,120,130,1,5,1,1,125,1,139,4,139,8,2],"default_left":[0,0,0,0,0,0,0,0,0,0,0,0,0,0,0,0,0,0,0,0,0,0,0,0,0,0,0,0,0,0,0,0,0,0,0,0,0,0,0,0,0,0,0,0,0,0,0,0,0,0,0,0,0,0,0],"id":0,"left_children":[1,3,5,7,9,11,13,15,-1,17,-1,19,21,23,-1,25,-1,27,29,31,-1,33,-1,35,-1,37,39,41,43,45,47,-1,49,51,53,-1,-1,-1,-1,-1,-1,-1,-1,-1,-1,-1,-1,-1,-1,-1,-1,-1,-1,-1,-1],"loss_changes":[1.4977556E2,1.0196938E1,1.2844719E1,2.87368E0,4.029933E0,2.2795868E0,2.63468E0,2.052719E0,0E0,5.1979094E0,0E0,3.333333E-1,7.0129395E-2,4.4389973E0,0E0,1.5921555E0,0E0,3.539339E0,1.9330654E0,7.5E-1,0E0,8.3330536E-1,0E0,5.217087E0,0E0,2.2888184E-2,3.0220737E0,8.571434E-2,2.3590734E0,3.0643516E0,1.1917486E0,0E0,2.5E-1,1.6848755E-1,1.4660635E0,0E0,0E0,0E0,0E0,0E0,0E0,0E0,0E0,0E0,0E0,0E0,0E0,0E0,0E0,0E0,0E0,0E0,0E0,0E0,0E0],"parents":[2147483647,0,0,1,1,2,2,3,3,4,4,5,5,6,6,7,7,9,9,11,11,12,12,13,13,15,15,17,17,18,18,19,19,21,21,23,23,25,25,26,26,27,27,28,28,29,29,30,30,32,32,33,33,34,34],"right_children":[2,4,6,8,10,12,14,16,-1,18,-1,20,22,24,-1,26,-1,28,30,32,-1,34,-1,36,-1,38,40,42,44,46,48,-1,50,52,54,-1,-1,-1,-1,-1,-1,-1,-1,-1,-1,-1,-1,-1,-1,-1,-1,-1,-1,-1,-1],"split_conditions":[NaN,NaN,1E0,6.663639E-1,1E0,NaN,4E0,9E0,-5E-2,8.6814776E-2,9.090909E-2,NaN,NaN,8.872599E-2,6.363636E-2,NaN,-2.0000001E-2,4.7517005E-2,1E0,8.4017426E-2,-5E-2,9.293098E-2,-9.493671E-2,NaN,-8.3333336E-2,NaN,NaN,NaN,NaN,9.594909E-2,3E0,-5E-2,NaN,NaN,NaN,8.3333336E-2,-7.1428575E-2,9.3589745E-2,5.714286E-2,6.52174E-2,-6.0000002E-2,7.1428575E-2,2.0000001E-2,1.4285715E-2,-6.0000002E-2,9.433962E-3,7.777778E-2,9.090909E-2,2.857143E-2,5E-2,-0E0,-3.3333335E-2,-9.245283E-2,-0E0,-6.923077E-2],"split_indices":[2,2,6,3,5,2,7,6,0,3,0,0,0,3,0,0,0,3,6,3,0,3,0,2,0,2,2,2,2,3,6,0,2,2,2,0,0,0,0,0,0,0,0,0,0,0,0,0,0,0,0,0,0,0,0],"split_type":[1,1,0,0,0,1,0,0,0,0,0,1,1,0,0,1,0,0,0,0,0,0,0,1,0,1,1,1,1,0,0,0,1,1,1,0,0,0,0,0,0,0,0,0,0,0,0,0,0,0,0,0,0,0,0],"sum_hessian":[3.22E2,1.785E2,1.435E2,9.75E1,8.1E1,1.265E2,1.7E1,9.65E1,1E0,7.1E1,1E1,5E0,1.215E2,1.25E1,4.5E0,9.5E1,1.5E0,2.15E1,4.95E1,4E0,1E0,4.35E1,7.8E1,7.5E0,5E0,8.3E1,1.2E1,4E0,1.75E1,3.35E1,1.6E1,1E0,3E0,2.75E1,1.6E1,5E0,2.5E0,7.7E1,6E0,1.05E1,1.5E0,2.5E0,1.5E0,6E0,1.15E1,2.55E1,8E0,1E1,6E0,1E0,2E0,2E0,2.55E1,4E0,1.2E1],"tree_param":{"num_deleted":"0","num_feature":"8","num_nodes":"55","size_leaf_vector":"0"}},{"base_weights":[-4.0828705E-9,5.973363E-1,-6.597576E-1,7.280651E-1,3.1883267E-1,-7.3477E-1,-5.3818397E-2,8.365185E-1,6.0338897E-1,2.2511926E-1,8.172396E-2,-7.6593935E-1,6.707602E-2,1.5576638E-1,-7.189174E-2,2.9788604E-2,8.6523974E-1,6.59814E-1,-6.306696E-2,-1.0188694E-1,4.681632E-1,-6.217067E-1,-8.862888E-2,7.875729E-2,-2.589587E-1,8.801402E-2,2.0000001E-2,7.396433E-1,4.4652495E-1,5.5729884E-1,-2.8425398E-1,6.382854E-1,9.951807E-3,-7.904826E-1,-4.0827006E-1,-8.048208E-2,5.2651417E-2,7.907887E-2,4.223686E-2,5.521917E-2,1.5261351E-2,6.6587314E-2,1.8244423E-2,1.3553691E-2,-5.1588207E-2,7.0129864E-2,1.5970584E-2,-2.6319876E-2,-8.905321E-2,-5.3306956E-2,8.965675E-4],"categories":[0,1,2,3,4,6,7,8,9,11,12,13,14,15,16,17,18,19,20,21,22,23,24,25,26,28,29,30,31,32,33,34,35,36,38,39,40,41,42,43,45,46,47,48,49,51,52,53,55,56,57,59,60,61,65,68,70,72,73,74,75,76,77,80,81,82,83,85,86,87,88,89,90,92,93,94,96,97,98,99,100,101,103,104,105,106,107,108,109,111,112,115,116,117,118,119,120,121,123,124,127,128,129,130,131,132,134,136,137,138,139,0,1,2,3,4,6,7,8,9,11,12,13,14,15,16,17,18,19,20,21,22,23,24,25,26,28,29,30,31,32,33,34,35,36,38,39,40,41,42,43,45,46,47,48,49,50,51,52,53,55,56,57,58,59,60,61,63,65,66,68,70,71,72,73,74,75,76,77,79,80,81,82,83,85,86,87,88,89,90,92,93,94,95,96,97,98,99,100,101,103,104,105,106,107,108,109,111,112,115,116,117,118,119,120,121,123,124,125,127,128,129,130,131,132,134,136,137,138,139,2,3,0,1,2,3,4,5,6,7,8,9,10,11,12,13,14,15,16,17,18,19,20,21,22,23,24,25,26,27,28,29,30,31,32,33,34,35,36,37,38,39,40,41,42,43,44,45,46,47,48,49,50,52,53,54,55,56,57,58,59,60,61,62,63,64,65,66,67,68,69,70,71,72,73,74,75,76,77,78,79,80,81,82,83,84,85,86,87,88,89,90,91,92,93,94,95,96,97,98,99,100,101,102,103,104,105,106,107,108,109,110,111,112,113,114,115,116,117,118,119,120,121,122,123,124,125,126,127,128,129,139,62,0,6,7,14,22,25,26,29,33,35,40,41,48,51,52,53,76,80,90,108,112,118,120,127,137,0,1,2,3,4,6,7,8,9,11,12,13,14,15,16,17,18,19,20,21,22,23,24,25,26,27,28,29,30,31,32,33,34,35,36,37,38,39,40,41,42,43,45,46,47,48,49,50,51,52,53,54,55,56,57,58,59,60,61,63,65,66,67,68,70,71,72,73,74,75,76,77,79,80,81,82,83,84,85,86,87,88,89,90,92,93,94,95,96,97,98,99,100,101,102,103,104,105,106,107,108,109,111,112,114,115,116,117,118,119,120,121,123,124,125,126,127,128,129,130,131,132,133,134,135,136,137,138,139,0,1,3,4,12,28,116,129,131,0,1,2,3,4,5,6,7,8,9,10,11,12,13,14,15,16,17,18,19,20,21,22,23,24,25,26,27,28,29,30,31,32,33,34,35,36,37,38,39,40,41,42,43,44,45,46,47,48,49,50,51,52,53,54,55,56,57,58,59,60,61,62,63,64,65,66,67,68,69,70,71,72,73,74,75,76,77,78,79,80,81,82,83,84,85,86,87,88,89,90,91,92,93,94,95,96,97,98,99,100,101,102,103,104,105,106,107,108,109,110,111,112,113,114,115,116,117,118,119,120,121,122,123,124,125,126,127,128,129,130,131,132,134,135,136,137,138,139,0,1,2,3,4,5,6,7,8,9,10,11,12,13,14,15,16,17,18,19,20,21,22,23,24,25,26,27,28,29,30,31,32,33,34,35,36,37,38,39,40,41,42,43,44,45,46,47,48,49,50,51,52,53,54,55,56,57,58,59,60,61,62,63,64,65,66,67,68,69,70,71,72,73,74,75,76,77,78,79,0,1,2,3,4,5,6,7,8,9,10,11,12,13,14,15,16,17,18,19,20,21,22,23,24,25,26,27,28,29,30,31,32,33,34,35,36,37,38,39,40,41,42,43,44,45,46,47,48,49,51,52,53,54,55,56,57,58,59,60,61,62,63,64,65,67,68,69,70,71,72,73,74,75,76,77,78,79,80,81,82,83,84,85,86,87,88,89,90,91,92,93,94,95,96,97,98,99,100,101,102,103,104,105,106,107,108,109,110,111,112,113,114,115,116,117,118,119,120,121,122,123,124,125,0,1,2,3,4,5,6,7,8,9,10,11,12,13,14,15,16,17,18,19,20,21,22,23,24,25,26,27,28,29,30,31,32,33,34,35,36,37,38,39,40,41,42,43,44,45,46,47,48,49,50,51,52,53,54,55,56,57,58,59,60,61,62,64,65,66,67,68,69,70,71,72,73,74,75,76,77,78,80,81,82,83,84,85,86,87,88,89,90,91,92,93,94,95,96,97,98,99,100,101,102,103,104,105,106,107,108,109,110,111,112,113,114,115,116,117,118,119,120,121,122,123,124,126,127,128,129,130,131,132,133,134,135,136,137,138,139,0,1,2,3,4,5,6,7,8,9,10,11,12,13,14,15,16,17,18,19,20,21,22,23,24,25,26,27,28,29,30,31,32,33,34,35,36,37,38,39,40,41,42,43,44,45,46,47,48,49,50,51,52,53,54,55,56,57,58,59,60,61,62,63,64,65,66,67,68,69,70,71,72,73,74,75,76,77,78,79,80,81,82,83,84,85,86,87,88,89,90,91,92,93,94,95,96,97,98,99,100,101,102,103,104,105,106,107,108,109,110,111,112,113,114,115,116,117],"categories_nodes":[0,1,3,6,8,11,16,20,21,28,29,30,31,33],"categories_segments":[0,111,230,232,362,363,388,517,521,526,665,745,869,1006],"categories_sizes":[111,119,2,130,1,25,129,4,5,139,80,124,137,118],"default_left":[0,0,0,0,0,0,0,1,0,0,0,0,0,0,0,0,0,0,0,0,0,0,0,0,0,0,0,0,0,0,0,0,0,0,0,0,0,0,0,0,0,0,0,0,0,0,0,0,0,0,0],"id":1,"left_children":[1,3,5,7,9,11,13,15,17,19,-1,21,-1,23,-1,-1,25,27,-1,29,31,33,-1,-1,35,-1,-1,37,39,41,43,45,-1,47,49,-1,-1,-1,-1,-1,-1,-1,-1,-1,-1,-1,-1,-1,-1,-1,-1],"loss_changes":[1.26966934E2,5.923977E0,6.9187164E0,1.0406494E0,2.4219675E0,6.4781647E0,2.6131165E0,6.477928E-1,4.368244E0,3.8898451E0,0E0,1.7690506E0,0E0,3.9942665E0,0E0,0E0,3.6960602E-1,6.0219E-1,0E0,2.7349002E0,1.6868725E0,1.9880009E0,0E0,0E0,4.4907703E0,0E0,0E0,2.879219E-1,4.5730042E-1,8.129144E-2,1.7667044E0,4.583435E-1,0E0,1.5989647E0,1.5873942E0,0E0,0E0,0E0,0E0,0E0,0E0,0E0,0E0,0E0,0E0,0E0,0E0,0E0,0E0,0E0,0E0],"parents":[2147483647,0,0,1,1,2,2,3,3,4,4,5,5,6,6,7,7,8,8,9,9,11,11,13,13,16,16,17,17,19,19,20,20,21,21,24,24,27,27,28,28,29,29,30,30,31,31,33,33,34,34],"right_children":[2,4,6,8,10,12,14,16,18,20,-1,22,-1,24,-1,-1,26,28,-1,30,32,34,-1,-1,36,-1,-1,38,40,42,44,46,-1,48,50,-1,-1,-1,-1,-1,-1,-1,-1,-1,-1,-1,-1,-1,-1,-1,-1],"split_conditions":[NaN,NaN,1E0,NaN,1E0,1E0,NaN,4.638362E-2,NaN,8.6814776E-2,8.172396E-2,NaN,6.707602E-2,8.872599E-2,-7.189174E-2,2.9788604E-2,NaN,3E0,-6.306696E-2,4.7517005E-2,NaN,NaN,-8.862888E-2,7.875729E-2,4E0,8.801402E-2,2.0000001E-2,9.157588E-2,NaN,NaN,NaN,NaN,9.951807E-3,NaN,9.71354E-2,-8.048208E-2,5.2651417E-2,7.907887E-2,4.223686E-2,5.521917E-2,1.5261351E-2,6.6587314E-2,1.8244423E-2,1.3553691E-2,-5.1588207E-2,7.0129864E-2,1.5970584E-2,-2.6319876E-2,-8.905321E-2,-5.3306956E-2,8.965675E-4],"split_indices":[2,2,6,0,5,5,2,3,2,3,0,2,0,3,0,0,2,6,0,3,0,2,0,0,7,0,0,3,2,2,2,2,0,2,3,0,0,0,0,0,0,0,0,0,0,0,0,0,0,0,0],"split_type":[1,1,0,1,0,0,1,0,1,0,0,1,0,0,0,0,1,0,0,0,1,1,0,0,0,0,0,0,1,1,1,1,0,1,0,0,0,0,0,0,0,0,0,0,0,0,0,0,0,0,0],"sum_hessian":[3.2017163E2,1.6808458E2,1.5208707E2,1.13291626E2,5.4792957E1,1.3514424E2,1.6942825E1,5.7534172E1,5.5757454E1,4.7342937E1,7.450018E0,1.3265746E2,2.4867866E0,1.3465425E1,3.4774005E0,3.4882278E0,5.4045944E1,5.3764503E1,1.9929498E0,2.0432537E1,2.6910402E1,6.314602E1,6.951144E1,4.97988E0,8.485545E0,5.2545944E1,1.5E0,3.732631E1,1.6438194E1,3.9822686E0,1.6450268E1,1.7912645E1,8.997757E0,3.3752506E1,2.939351E1,4.991845E0,3.4937E0,3.085928E1,6.467031E0,1.1444802E1,4.993392E0,2.4858944E0,1.4963741E0,5.9968095E0,1.0453458E1,1.5417315E1,2.495331E0,5.9620156E0,2.7790491E1,2.2412176E1,6.9813356E0],"tree_param":{"num_deleted":"0","num_feature":"8","num_nodes":"51","size_leaf_vector":"0"}},{"base_weights":[-7.529975E-10,5.1374763E-1,-6.7771965E-1,7.2845864E-1,2.8660953E-1,-7.719082E-1,-2.421815E-2,7.5428843E-1,-1.4495862E-2,2.1408057E-1,7.962273E-2,-2.8245231E-2,-7.776986E-2,1.7060068E-1,-6.735284E-2,7.7525204E-1,4.7456086E-1,3.3720946E-1,-1.8810694E-1,7.470947E-2,-1.9030534E-1,7.843744E-2,2.6449988E-2,7.257869E-2,-2.0786297E-2,2.6635778E-1,7.844065E-2,-3.3604646E-1,4.6581443E-2,-7.76656E-2,5.5083156E-1,-5.4553133E-2,5.156976E-2,3.260393E-2,-6.967911E-2,1.1567007E-3,-4.485724E-2,1.5379379E-2,6.761159E-2],"categories":[0,1,2,3,4,6,7,8,9,11,12,13,14,15,16,17,18,19,20,21,22,23,24,25,26,28,29,30,31,32,33,34,35,36,38,39,40,41,42,43,45,46,47,48,49,51,52,53,55,56,57,59,60,61,65,68,70,72,73,74,75,76,77,80,81,82,83,85,86,87,88,89,90,92,93,94,96,97,98,99,100,101,103,104,105,106,107,108,109,111,112,115,116,117,118,119,120,121,123,124,127,128,131,132,134,136,137,138,139,0,1,2,3,4,6,7,8,9,11,12,13,14,15,16,17,18,19,20,21,22,23,24,25,26,27,28,29,30,31,32,33,34,35,36,38,39,40,41,42,43,45,46,47,48,49,50,51,52,53,54,55,56,57,58,59,60,61,63,65,66,67,68,70,71,72,73,74,75,76,77,79,80,81,82,83,85,86,87,88,89,90,92,93,94,95,96,97,98,99,100,101,103,104,105,106,107,108,109,111,112,115,116,117,118,119,120,121,123,124,125,127,128,129,131,132,134,136,137,138,139,0,1,2,3,4,5,6,7,8,9,10,11,12,13,14,15,16,17,18,19,20,21,22,23,24,25,26,27,28,29,30,31,32,33,34,35,36,37,38,39,40,41,42,43,44,45,46,47,48,49,50,51,52,53,54,55,56,57,58,59,60,61,62,63,64,65,66,67,68,69,70,71,72,73,74,75,76,77,78,79,80,81,82,83,84,85,86,87,88,89,90,91,92,93,94,95,96,97,98,99,100,101,102,103,104,105,106,107,108,109,110,111,112,113,114,115,116,117,118,119,120,121,122,123,124,125,126,127,128,129,130,131,132,133,134,135,136,137,139,3,0,1,2,3,4,5,6,7,8,9,10,11,12,13,14,15,16,17,18,19,20,21,22,23,24,25,26,28,29,30,31,32,33,34,35,36,37,38,39,40,41,42,43,44,45,46,47,48,49,51,52,53,55,56,57,58,59,60,61,62,64,65,66,68,69,70,72,73,74,75,76,77,78,80,81,82,83,84,85,86,87,88,89,90,91,92,93,94,96,97,98,99,100,101,102,103,104,105,106,107,108,109,110,111,112,113,114,115,116,117,118,119,120,121,122,123,124,125,126,127,128,129,130,131,132,133,134,135,136,137,138,139,58,129],"categories_nodes":[0,1,5,6,7,9,27],"categories_segments":[0,109,230,368,369,370,502],"categories_sizes":[109,121,138,1,1,132,2],"default_left":[0,0,0,0,0,0,0,0,0,0,0,0,0,0,0,0,0,0,0,0,0,0,0,0,0,0,0,0,0,0,0,0,0,0,0,0,0,0,0],"id":2,"left_children":[1,3,5,7,9,11,13,15,-1,17,-1,-1,-1,19,-1,21,23,25,27,-1,29,-1,-1,-1,31,33,-1,35,-1,-1,37,-1,-1,-1,-1,-1,-1,-1,-1],"loss_changes":[1.1059003E2,8.60228E0,8.411324E0,2.1899872E0,3.1355214E0,1.19506836E-1,2.427946E0,1.5833664E-1,0E0,4.0086007E0,0E0,0E0,0E0,3.2345796E0,0E0,1.7414093E-1,1.114507E0,1.7349772E0,2.0250843E0,0E0,4.7463655E0,0E0,0E0,0E0,1.391934E0,3.358526E0,0E0,6.440387E-1,0E0,0E0,1.4346242E-1,0E0,0E0,0E0,0E0,0E0,0E0,0E0,0E0],"parents":[2147483647,0,0,1,1,2,2,3,3,4,4,5,5,6,6,7,7,9,9,13,13,15,15,16,16,17,17,18,18,20,20,24,24,25,25,27,27,30,30],"right_children":[2,4,6,8,10,12,14,16,-1,18,-1,-1,-1,20,-1,22,24,26,28,-1,30,-1,-1,-1,32,34,-1,36,-1,-1,38,-1,-1,-1,-1,-1,-1,-1,-1],"split_conditions":[NaN,NaN,1E0,9E0,1E0,NaN,NaN,NaN,-1.4495862E-2,NaN,7.962273E-2,-2.8245231E-2,-7.776986E-2,8.872599E-2,-6.735284E-2,6.3342375E-1,6.415081E-2,2.9193404E-1,9.594909E-2,7.470947E-2,4E0,7.843744E-2,2.6449988E-2,7.257869E-2,7.304196E-2,9.2409395E-2,7.844065E-2,NaN,4.6581443E-2,-7.76656E-2,4E0,-5.4553133E-2,5.156976E-2,3.260393E-2,-6.967911E-2,1.1567007E-3,-4.485724E-2,1.5379379E-2,6.761159E-2],"split_indices":[2,2,6,6,5,2,2,0,0,2,0,0,0,3,0,3,3,3,3,0,7,0,0,0,3,3,0,2,0,0,6,0,0,0,0,0,0,0,0],"split_type":[1,1,0,0,0,1,1,1,0,1,0,0,0,0,0,0,0,0,0,0,0,0,0,0,0,0,0,1,0,0,0,0,0,0,0,0,0,0,0],"sum_hessian":[3.1562598E2,1.7966913E2,1.3595685E2,9.122659E1,8.844254E1,1.1867162E2,1.7285223E1,8.87387E1,2.4878948E0,7.866675E1,9.775792E0,1.9695159E0,1.1670211E2,1.3863024E1,3.4221985E0,8.0904045E1,7.834653E0,6.0351746E1,1.8315002E1,4.9253893E0,8.937634E0,7.895809E1,1.9459541E0,4.889585E0,2.945068E0,5.3475037E1,6.876707E0,1.5332394E1,2.9826093E0,4.963129E0,3.9745054E0,1.4802971E0,1.4647708E0,5.097769E1,2.4973474E0,3.9689076E0,1.1363486E1,1.4876288E0,2.4868767E0],"tree_param":{"num_deleted":"0","num_feature":"8","num_nodes":"39","size_leaf_vector":"0"}},{"base_weights":[5.7733653E-9,4.8813394E-1,-6.107484E-1,6.515545E-1,2.8402162E-1,-6.8710613E-1,9.707169E-3,1.378187E-1,6.7201334E-1,2.2915503E-1,7.298502E-2,-6.0637508E-2,-7.177883E-1,-1.5333618E-1,6.493417E-2,6.095735E-2,-5.6393314E-2,6.863773E-1,1.1111533E-2,3.2909653E-1,-2.1661821E-1,-4.1364497E-1,3.0133316E-2,-6.0444784E-1,-7.773472E-2,3.2399276E-1,-6.612602E-2,7.248437E-1,4.654174E-1,2.6975694E-1,7.156674E-2,-4.4063285E-1,4.458755E-2,-1.553858E-2,-5.0098527E-2,-3.6722293E-1,-7.226883E-1,6.992152E-2,-5.3755846E-2,7.3494785E-2,2.2680035E-2,6.0166366E-2,-5.23395E-2,3.0292163E-2,-5.245288E-2,-6.1588973E-2,-2.9804869E-2,-6.809081E-2,-1.8852629E-2,-7.785025E-2,-3.617209E-2],"categories":[0,1,2,3,4,6,7,8,9,11,12,13,14,15,16,17,18,19,20,21,22,23,24,25,26,28,29,30,31,32,33,34,35,36,38,39,40,41,42,43,45,46,47,48,49,51,52,53,55,56,57,59,60,61,65,68,70,72,73,74,75,76,77,80,81,82,83,84,85,86,87,88,89,90,92,93,94,96,97,98,99,100,101,103,104,105,106,107,108,109,111,112,115,116,117,118,119,120,121,123,124,125,127,128,130,132,134,136,137,138,139,0,1,2,3,4,6,7,8,9,11,12,13,14,15,16,17,18,19,20,21,22,23,24,25,26,27,28,29,30,31,32,33,34,35,36,38,39,40,41,42,43,45,46,47,48,49,50,51,52,53,54,55,56,57,58,59,60,61,63,65,68,70,71,72,73,74,75,76,77,79,80,81,82,83,84,85,86,87,88,89,90,92,93,94,95,96,97,98,99,100,101,103,104,105,106,107,108,109,111,112,115,116,117,118,119,120,121,123,124,125,127,128,129,130,131,132,134,136,137,138,139,0,1,2,3,4,5,6,7,8,9,10,11,12,13,14,15,16,17,18,19,20,21,22,23,24,25,26,27,28,29,30,31,32,33,34,35,36,37,38,39,40,41,42,43,44,45,46,47,48,49,50,51,52,53,54,55,56,57,58,59,60,61,62,63,64,65,66,67,68,69,70,71,72,73,74,75,76,77,78,79,80,81,82,83,84,85,86,87,88,89,90,91,92,93,94,95,96,97,98,99,100,101,102,103,104,105,106,107,108,109,110,111,112,113,114,115,116,117,118,120,125,127,137,0,1,2,3,4,5,6,7,8,9,10,11,12,13,14,15,16,17,18,19,20,21,22,23,24,25,26,27,28,29,30,31,32,33,34,35,36,38,39,40,41,42,43,44,45,46,47,48,49,50,51,52,53,54,55,56,57,58,59,60,61,62,63,64,65,66,67,68,69,70,71,72,73,74,75,76,77,78,79,80,81,82,83,84,85,86,87,88,89,90,91,58,129,0,7,12,14,22,25,26,29,33,40,41,48,51,52,53,60,61,76,80,90,92,108,112,120,127,137,3,0,3,4,5,139,0,1,2,3,4,6,7,8,9,11,12,13,14,15,16,17,18,19,20,21,22,23,24,25,26,27,28,29,30,31,32,33,34,35,36,37,38,39,40,41,42,43,45,46,47,48,49,50,51,52,53,54,55,56,57,58,59,60,61,63,65,66,67,68,70,71,72,73,74,75,76,77,79,80,81,82,83,84,85,86,87,88,89,90,92,93,94,95,96,97,98,99,100,101,102,103,104,105,106,107,108,109,111,112,113,114,115,116,117,118,119,120,121,123,124,125,127,128,129,130,131,132,134,136,137,138,139,62],"categories_nodes":[0,1,5,7,9,12,17,23,25,27,28],"categories_segments":[0,111,232,355,446,448,474,475,479,480,607],"categories_sizes":[111,121,123,91,2,26,1,4,1,127,1],"default_left":[0,0,0,1,0,0,0,0,0,0,0,0,0,0,0,0,0,0,0,0,0,0,0,0,0,0,0,0,0,0,0,0,0,0,0,0,0,0,0,0,0,0,0,0,0,0,0,0,0,0,0],"id":3,"left_children":[1,3,5,7,9,11,13,15,17,19,-1,21,23,25,-1,-1,-1,27,-1,29,31,33,-1,35,-1,37,-1,39,41,43,-1,45,-1,-1,-1,47,49,-1,-1,-1,-1,-1,-1,-1,-1,-1,-1,-1,-1,-1,-1],"loss_changes":[9.263469E1,5.575432E0,6.5458565E0,9.0730286E-1,1.7544351E0,2.3190613E0,1.7797658E0,1.9664376E0,6.5877914E-1,3.2526836E0,0E0,9.975125E-1,3.2049942E-1,3.5230422E0,0E0,0E0,0E0,4.1708755E-1,0E0,1.1541228E0,2.2268343E0,9.669185E-3,0E0,9.9201775E-1,0E0,2.8672779E0,0E0,2.0473099E-1,2.4644403E0,1.5423446E0,0E0,8.448601E-2,0E0,0E0,0E0,8.2144284E-1,3.0031872E-1,0E0,0E0,0E0,0E0,0E0,0E0,0E0,0E0,0E0,0E0,0E0,0E0,0E0,0E0],"parents":[2147483647,0,0,1,1,2,2,3,3,4,4,5,5,6,6,7,7,8,8,9,9,11,11,12,12,13,13,17,17,19,19,20,20,21,21,23,23,25,25,27,27,28,28,29,29,31,31,35,35,36,36],"right_children":[2,4,6,8,10,12,14,16,18,20,-1,22,24,26,-1,-1,-1,28,-1,30,32,34,-1,36,-1,38,-1,40,42,44,-1,46,-1,-1,-1,48,50,-1,-1,-1,-1,-1,-1,-1,-1,-1,-1,-1,-1,-1,-1],"split_conditions":[NaN,NaN,1E0,4.638362E-2,1E0,NaN,4E0,NaN,9E0,NaN,7.298502E-2,8.722305E-2,NaN,8.872599E-2,6.493417E-2,6.095735E-2,-5.6393314E-2,NaN,1.1111533E-2,2.9193404E-1,9.594909E-2,6.641942E-2,3.0133316E-2,NaN,-7.773472E-2,NaN,-6.612602E-2,NaN,NaN,9.2409395E-2,7.156674E-2,7.758506E-2,4.458755E-2,-1.553858E-2,-5.0098527E-2,8.446049E-2,4.0890786E-1,6.992152E-2,-5.3755846E-2,7.3494785E-2,2.2680035E-2,6.0166366E-2,-5.23395E-2,3.0292163E-2,-5.245288E-2,-6.1588973E-2,-2.9804869E-2,-6.809081E-2,-1.8852629E-2,-7.785025E-2,-3.617209E-2],"split_indices":[2,2,6,3,5,2,6,2,6,2,0,3,2,3,0,0,0,0,0,3,3,3,0,0,0,2,0,2,2,3,0,3,0,0,0,3,3,0,0,0,0,0,0,0,0,0,0,0,0,0,0],"split_type":[1,1,0,0,0,1,0,1,0,1,0,0,1,0,0,0,0,1,0,0,0,0,0,1,0,1,0,1,1,0,0,0,0,0,0,0,0,0,0,0,0,0,0,0,0,0,0,0,0,0,0],"sum_hessian":[3.087222E2,1.7169646E2,1.3702573E2,9.4135574E1,7.756088E1,1.2191462E2,1.5111113E1,3.9015422E0,9.023403E1,7.040979E1,7.1510906E0,5.8311067E0,1.1608351E2,1.2647524E1,2.4635887E0,2.4116547E0,1.4898876E0,8.7762825E1,2.4712067E0,5.772884E1,1.2680954E1,2.87983E0,2.951277E0,4.3827923E1,7.225559E1,6.706818E0,5.9407063E0,7.28075E1,1.4955318E1,5.1518444E1,6.210393E0,9.726827E0,2.954127E0,1.4301276E0,1.4497023E0,1.5944443E1,2.788348E1,4.8033066E0,1.9035113E0,7.089357E1,1.9139338E0,1.3488321E1,1.466997E0,5.0047386E1,1.4710598E0,2.8743489E0,6.852478E0,4.76664E0,1.1177803E1,2.3147594E1,4.735885E0],"tree_param":{"num_deleted":"0","num_feature":"8","num_nodes":"51","size_leaf_vector":"0"}},{"base_weights":[3.1498972E-9,4.2435706E-1,-6.0340685E-1,6.7239696E-1,2.787442E-1,-6.871212E-1,1.8129338E-2,7.353927E-2,2.2478484E-1,2.315768E-1,7.314309E-2,-2.3892999E-4,-6.9905114E-1,-1.3400011E-1,6.1200734E-2,5.7503134E-1,-5.7985913E-2,3.1433564E-1,-1.8982585E-1,-2.526454E-2,-7.046702E-1,3.324223E-1,-6.321684E-2,6.705646E-2,1.1408961E-2,2.5652578E-1,7.25159E-2,-3.5148153E-1,4.6692234E-2,-7.1525626E-2,-4.282941E-1,6.8935074E-2,-5.068922E-2,3.1896904E-2,-3.127008E-2,-5.7618346E-2,-1.0473783E-2,1.4892139E-2,-6.1288547E-2],"categories":[0,1,2,3,4,6,7,8,9,11,12,13,14,15,16,17,18,19,20,21,22,23,24,25,26,28,29,30,31,32,33,34,35,36,38,39,40,41,42,43,45,46,47,48,49,51,52,53,55,56,57,59,60,61,64,65,68,70,72,73,74,75,76,77,80,81,82,83,85,86,87,88,89,90,92,93,94,96,97,98,99,100,101,103,104,105,106,107,108,109,111,112,115,116,117,118,120,121,123,124,127,128,130,131,132,134,136,137,138,139,0,1,2,3,4,6,7,8,9,11,12,13,14,15,16,17,18,19,20,21,22,23,24,25,26,27,28,29,30,31,32,33,34,35,36,37,38,39,40,41,42,43,45,46,47,48,49,50,51,52,53,55,56,57,58,59,60,61,63,64,65,66,67,68,70,71,72,73,74,75,76,77,78,79,80,81,82,83,85,86,87,88,89,90,91,92,93,94,95,96,97,98,99,100,101,103,104,105,106,107,108,109,111,112,115,116,117,118,120,121,123,124,125,127,128,129,130,131,132,133,134,136,137,138,139,3,62,58,129,0,1,2,3,4,5,6,7,8,9,10,11,12,13,14,15,16,17,18,19,20,21,22,23,24,25,26,27,28,29,30,31,32,33,34,35,36,37,38,39,40,41,42,43,44,45,46,47,48,49,50,51,52,53,54,55,56,57,58,59,60,61,62,63,64,65,66,67,68,69,70,71,72,73,74,75,76,77,78,79,80,81,82,83,84,85,86,87,88,89,90,91,92,93,94,95,96,97,98,99,100,101,102,103,104,105,106,107,108,109,110,111,112,113,114,115,116,117,118,119,120,121,122,123,124,125,126,127,128,129,130,131,132,133,134,135,136,137,139],"categories_nodes":[0,1,3,8,9,12,21],"categories_segments":[0,110,235,236,237,239,377],"categories_sizes":[110,125,1,1,2,138,1],"default_left":[0,0,0,0,0,0,0,0,0,0,0,0,0,0,0,0,0,1,0,0,0,0,0,0,0,0,0,0,0,0,0,0,0,0,0,0,0,0,0],"id":4,"left_children":[1,3,5,7,9,11,13,-1,15,17,-1,-1,19,21,-1,23,-1,25,27,-1,29,31,-1,-1,-1,33,-1,35,-1,-1,37,-1,-1,-1,-1,-1,-1,-1,-1],"loss_changes":[7.778171E1,6.2538795E0,6.538353E0,1.6748943E0,2.2664766E0,9.01474E-1,1.5150899E0,0E0,3.008426E0,3.713821E0,0E0,0E0,9.453964E-2,3.3348322E0,0E0,2.3681617E-1,0E0,1.9029016E0,2.0563447E0,0E0,5.9890747E-3,2.626366E0,0E0,0E0,0E0,2.895423E0,0E0,7.642747E-1,0E0,0E0,7.7645206E-1,0E0,0E0,0E0,0E0,0E0,0E0,0E0,0E0],"parents":[2147483647,0,0,1,1,2,2,3,3,4,4,5,5,6,6,8,8,9,9,12,12,13,13,15,15,17,17,18,18,20,20,21,21,25,25,27,27,30,30],"right_children":[2,4,6,8,10,12,14,-1,16,18,-1,-1,20,22,-1,24,-1,26,28,-1,30,32,-1,-1,-1,34,-1,36,-1,-1,38,-1,-1,-1,-1,-1,-1,-1,-1],"split_conditions":[NaN,NaN,1E0,NaN,1E0,2.2225397E-2,4E0,7.353927E-2,NaN,NaN,7.314309E-2,-2.3892999E-4,NaN,8.872599E-2,6.1200734E-2,6.415081E-2,-5.7985913E-2,3.7107366E-1,9.594909E-2,-2.526454E-2,6.6352844E-1,NaN,-6.321684E-2,6.705646E-2,1.1408961E-2,9.2409395E-2,7.25159E-2,8.5437454E-2,4.6692234E-2,-7.1525626E-2,6.902763E-1,6.8935074E-2,-5.068922E-2,3.1896904E-2,-3.127008E-2,-5.7618346E-2,-1.0473783E-2,1.4892139E-2,-6.1288547E-2],"split_indices":[2,2,6,0,5,3,6,0,2,2,0,0,2,3,0,3,0,3,3,0,3,2,0,0,0,3,0,3,0,0,3,0,0,0,0,0,0,0,0],"split_type":[1,1,0,1,0,0,0,0,1,1,0,0,1,0,0,0,0,0,0,0,0,1,0,0,0,0,0,0,0,0,0,0,0,0,0,0,0,0,0],"sum_hessian":[3.0176364E2,1.773416E2,1.2442203E2,6.426078E1,1.1308082E2,1.0955995E2,1.48620825E1,5.576907E1,8.491709E0,1.03779175E2,9.301643E0,1.8967116E0,1.0766324E2,1.2447786E1,2.4142957E0,6.115225E0,2.376484E0,8.695604E1,1.6823135E1,1.9096951E0,1.0575354E2,6.60056E0,5.8472266E0,4.6886916E0,1.4265333E0,7.765331E1,9.302726E0,1.3873138E1,2.9499967E0,1.0032288E2,5.4306583E0,4.756483E0,1.8440766E0,7.037314E1,7.280175E0,6.5620923E0,7.311046E0,1.3627114E0,4.067947E0],"tree_param":{"num_deleted":"0","num_feature":"8","num_nodes":"39","size_leaf_vector":"0"}},{"base_weights":[-6.2934777E-9,4.659772E-1,-4.775735E-1,5.9565735E-1,3.195989E-1,-3.0492786E-1,-7.013657E-2,6.2405044E-1,-3.3345755E-2,3.4356472E-1,-5.0359935E-2,-5.6307286E-1,-1.1229119E-1,6.507727E-2,3.279177E-1,2.913605E-1,6.067874E-2,-6.587791E-1,-2.883005E-1,1.4274618E-1,-2.6465186E-1,5.469738E-1,-4.494264E-2,3.1778112E-1,-4.783716E-2,-5.5531505E-4,-7.10406E-2,2.4718954E-3,-4.4161218E-1,-6.1471976E-2,3.891003E-1,-3.6027217E-1,6.2165022E-2,6.362945E-2,1.1777104E-2,4.3698665E-2,9.437128E-3,-2.4141937E-3,2.8981117E-3,-6.0524978E-2,3.0540638E-3,2.0097025E-2,6.657124E-2,-5.060139E-2,3.0815064E-3],"categories":[0,1,2,3,4,6,7,8,9,11,12,13,14,15,16,17,18,19,20,21,22,23,24,25,26,28,29,30,31,32,33,34,35,36,38,39,40,41,42,43,45,46,47,48,49,51,52,53,55,56,57,59,60,61,64,65,68,70,72,73,74,75,76,77,80,81,82,83,84,85,86,87,88,89,90,92,93,94,96,97,98,99,100,101,103,104,105,106,107,108,109,111,112,115,116,117,118,119,120,121,123,124,125,127,128,129,130,131,132,134,136,137,138,139,0,1,2,3,4,6,7,8,9,11,12,13,14,15,16,17,18,19,20,21,22,23,24,25,26,27,28,29,30,31,32,33,34,35,36,37,38,39,40,41,42,43,45,46,47,48,49,50,51,52,53,55,56,57,58,59,60,61,63,64,65,66,67,68,70,72,73,74,75,76,77,78,79,80,81,82,83,84,85,86,87,88,89,90,91,92,93,94,95,96,97,98,99,100,101,103,104,105,106,107,108,109,111,112,115,116,117,118,119,120,121,123,124,125,127,128,129,130,131,132,134,136,137,138,139,0,7,14,22,25,26,28,29,33,40,41,48,52,53,76,80,90,108,112,116,120,127,137,12,51,125,129,131,139,3,62,5,0,1,2,3,4,5,6,7,8,9,10,11,12,13,14,15,16,17,18,19,20,21,22,23,24,25,26,28,29,30,31,32,33,34,35,36,38,39,40,41,42,43,44,45,46,47,48,49,50,51,52,53,54,55,56,57,58,59,60,61,62,63,64,65,68,69,70,71,72,73,74,75,76,77,78,80,81,82,83,84,85,86,87,88,89,90,91,92,93,94,96,97,98,99,100,101,102,103,104,105,106,107,108,109,110,111,112,113,114,115,116,117,118,119,120,121,122,123,124,125,126,127,128,129,130,131,132,133,134,135,136,137,138,139,0,1,2,3,4,5,6,7,8,9,10,11,12,13,14,15,16,17,18,19,20,21,22,23,24,25,26,27,28,29,30,31,32,33,34,35,36,37,38,39,40,41,42,43,44,45,46,47,48,49,50,51,52,53,54,55,56,57,58,59,60,61,62,63,64,65,66,67,68,69,70,71,72,73,74,75,76,77,78,79,80,81,82,83,84,85,86,0,1,2,3,4,5,6,7,8,9,10,11,12,13,14,15,16,17,18,19,20,21,22,23,24,25,26,27,28,29,30,31,32,33,34,35,36,37,38,39,40,41,42,43,44,45,46,47,48,49,50,51,52,53,54,55,56,57,58,59,60,61,62,63,64],"categories_nodes":[0,1,2,5,7,14,18,23,27,28],"categories_segments":[0,114,239,262,268,269,270,271,405,492],"categories_sizes":[114,125,23,6,1,1,1,134,87,65],"default_left":[0,0,0,0,0,0,0,0,0,0,0,0,0,0,0,0,0,0,0,0,0,0,0,0,0,0,0,0,0,0,0,0,0,0,0,0,0,0,0,0,0,0,0,0,0],"id":5,"left_children":[1,3,5,7,9,11,-1,13,-1,15,-1,17,19,-1,21,23,-1,25,27,29,31,33,-1,35,-1,-1,-1,37,39,-1,41,43,-1,-1,-1,-1,-1,-1,-1,-1,-1,-1,-1,-1,-1],"loss_changes":[6.555905E1,2.6400604E0,5.407318E0,2.2632923E0,1.5974722E0,4.1088805E0,0E0,3.8757324E-1,0E0,7.954645E-1,0E0,7.4636555E-1,1.9532418E0,0E0,1.6594162E0,1.3919101E0,0E0,8.6033916E-1,4.9037927E-1,3.8005328E0,2.8689117E0,1.9063902E-1,0E0,1.5445595E0,0E0,0E0,0E0,4.074561E-3,5.7416606E-1,0E0,6.475036E-1,1.657315E0,0E0,0E0,0E0,0E0,0E0,0E0,0E0,0E0,0E0,0E0,0E0,0E0,0E0],"parents":[2147483647,0,0,1,1,2,2,3,3,4,4,5,5,7,7,9,9,11,11,12,12,14,14,15,15,17,17,18,18,19,19,20,20,21,21,23,23,27,27,28,28,30,30,31,31],"right_children":[2,4,6,8,10,12,-1,14,-1,16,-1,18,20,-1,22,24,-1,26,28,30,32,34,-1,36,-1,-1,-1,38,40,-1,42,44,-1,-1,-1,-1,-1,-1,-1,-1,-1,-1,-1,-1,-1],"split_conditions":[NaN,NaN,NaN,9E0,1.7423964E-1,NaN,-7.013657E-2,NaN,-3.3345755E-2,9.455311E-2,-5.0359935E-2,3.8894445E-1,8.888596E-2,6.507727E-2,NaN,9.2409395E-2,6.067874E-2,2.2225397E-2,NaN,8.420219E-2,4E0,6.415081E-2,-4.494264E-2,NaN,-4.783716E-2,-5.5531505E-4,-7.10406E-2,NaN,NaN,-6.1471976E-2,1E0,9.594909E-2,6.2165022E-2,6.362945E-2,1.1777104E-2,4.3698665E-2,9.437128E-3,-2.4141937E-3,2.8981117E-3,-6.0524978E-2,3.0540638E-3,2.0097025E-2,6.657124E-2,-5.060139E-2,3.0815064E-3],"split_indices":[2,2,2,6,4,2,0,0,0,3,0,3,3,0,2,3,0,3,0,3,6,3,0,2,0,0,0,2,2,0,6,3,0,0,0,0,0,0,0,0,0,0,0,0,0],"split_type":[1,1,1,0,0,1,0,1,0,0,0,0,0,0,1,0,0,0,1,0,0,0,0,1,0,0,0,1,1,0,0,0,0,0,0,0,0,0,0,0,0,0,0,0,0],"sum_hessian":[2.9259665E2,1.4810864E2,1.4448802E2,7.6906204E1,7.120243E1,8.289827E1,6.1589752E1,7.4944305E1,1.9619033E0,6.975432E1,1.4481138E0,3.4603916E1,4.8294353E1,6.764283E1,7.3014755E0,5.996794E1,9.786373E0,2.4628122E1,9.975794E0,1.8084955E1,3.0209398E1,5.9274664E0,1.3740088E0,5.8545555E1,1.4223894E0,1.8850098E0,2.2743113E1,3.7836196E0,6.1921744E0,4.071385E0,1.401357E1,2.78033E1,2.4060981E0,4.507016E0,1.4204507E0,3.755254E1,2.0993015E1,1.9326468E0,1.8509728E0,4.3891125E0,1.8030616E0,9.368431E0,4.6451383E0,2.0041E1,7.7623E0],"tree_param":{"num_deleted":"0","num_feature":"8","num_nodes":"45","size_leaf_vector":"0"}},{"base_weights":[6.3025554E-9,4.3341404E-1,-5.369136E-1,5.554907E-1,2.2818081E-1,-5.66565E-1,4.461347E-2,5.686616E-1,-1.8289197E-2,1.652246E-1,6.501936E-2,-4.6094486E-1,-6.975118E-2,6.3191956E-1,4.2834514E-1,9.794118E-2,6.3120596E-2,-3.443036E-1,-6.835996E-2,6.4892733E-1,2.16577E-2,-9.2007875E-2,5.1726305E-1,1.4993478E-1,-5.649043E-2,-9.491897E-2,-4.9253774E-1,6.6971235E-2,3.8562287E-2,5.3334314E-2,-6.467362E-2,5.991037E-2,9.308939E-3,5.6092154E-2,1.1105935E-2,-6.422931E-2,3.792034E-2,-7.743857E-2,-3.3060823E-2],"categories":[0,1,2,3,4,6,7,8,9,11,12,13,14,15,16,17,18,19,20,21,22,23,24,25,26,28,29,30,31,32,33,34,35,36,38,39,40,41,42,43,45,46,47,48,49,51,52,53,55,56,57,59,60,61,65,68,70,72,73,74,75,76,77,80,81,82,83,85,86,87,88,89,90,92,93,94,96,97,98,99,100,101,103,104,105,106,107,108,109,111,112,115,116,117,118,119,120,121,123,124,125,127,128,131,132,134,136,137,138,139,0,1,2,3,4,6,7,8,9,11,12,13,14,15,16,17,18,19,20,21,22,23,24,25,26,28,29,30,31,32,33,34,35,36,38,39,40,41,42,43,45,46,47,48,49,50,51,52,53,54,55,56,57,58,59,60,61,63,65,68,70,71,72,73,74,75,76,77,79,80,81,82,83,85,86,87,88,89,90,92,93,94,95,96,97,98,99,100,101,103,104,105,106,107,108,109,111,112,115,116,117,118,119,120,121,123,124,125,127,128,129,131,132,134,136,137,138,139,0,7,14,22,25,29,33,40,48,52,53,61,76,80,108,112,116,118,120,127,137,0,1,2,3,4,6,7,8,9,11,12,13,14,15,16,17,18,19,20,21,22,23,24,25,26,27,28,29,30,31,32,33,34,35,36,37,38,39,40,41,42,43,45,46,47,48,49,50,51,52,53,54,55,56,57,58,59,60,61,63,65,66,67,68,70,71,72,73,74,75,76,77,78,79,80,81,82,83,85,86,87,88,89,90,91,92,93,94,95,96,97,98,99,100,101,102,103,104,105,106,107,108,109,111,112,115,116,117,118,119,120,121,123,124,125,127,128,129,131,132,134,136,137,138,139,1,3,4,5,3,0,1,2,3,4,5,6,7,8,9,10,11,12,13,14,15,16,17,18,19,20,21,22,23,24,25,26,27,28,29,30,31,32,33,34,35,36,37,38,39,40,41,42,43,44,45,46,47,48,49,51,52,53,55,56,57,58,59,60,61,62,64,65,66,67,68,69,70,71,0,1,2,3,4,5,6,7,8,9,10,11,12,13,14,15,16,17,18,19,20,21,22,23,24,25,26,27,28,29,30,31,32,33,34,35,36,38,39,40,41,42,43,44,45,46,47,48,49,50,51,52,53,54,55,56,57,58,59,60,61,62,63,64,65,66,67,68,69,70,71,72,73,74,75,76,77,78,79,80,81,82,83,84,85,86,87,88,89,90,91],"categories_nodes":[0,1,5,7,11,13,15,21],"categories_segments":[0,110,228,249,374,378,379,448],"categories_sizes":[110,118,21,125,4,1,69,91],"default_left":[0,0,0,0,0,0,0,0,0,0,0,0,0,0,1,0,0,0,0,0,0,0,0,0,0,0,0,0,0,0,0,0,0,0,0,0,0,0,0],"id":6,"left_children":[1,3,5,7,9,11,-1,13,-1,15,-1,17,-1,19,21,23,-1,25,-1,27,-1,29,31,33,-1,35,37,-1,-1,-1,-1,-1,-1,-1,-1,-1,-1,-1,-1],"loss_changes":[6.625522E1,3.8203564E0,3.9597206E0,1.0579166E0,1.4987829E0,1.3919678E0,0E0,5.8685684E-1,0E0,1.6296148E0,0E0,1.6222067E0,0E0,3.149929E-1,1.580234E0,1.7501687E0,0E0,1.7628622E0,0E0,7.804108E-2,0E0,2.3164577E0,9.3156815E-1,6.662787E-1,0E0,5.3011684E0,1.1343241E0,0E0,0E0,0E0,0E0,0E0,0E0,0E0,0E0,0E0,0E0,0E0,0E0],"parents":[2147483647,0,0,1,1,2,2,3,3,4,4,5,5,7,7,9,9,11,11,13,13,14,14,15,15,17,17,19,19,21,21,22,22,23,23,25,25,26,26],"right_children":[2,4,6,8,10,12,-1,14,-1,16,-1,18,-1,20,22,24,-1,26,-1,28,-1,30,32,34,-1,36,38,-1,-1,-1,-1,-1,-1,-1,-1,-1,-1,-1,-1],"split_conditions":[NaN,NaN,4E0,9E0,1E0,NaN,4.461347E-2,NaN,-1.8289197E-2,2.9193404E-1,6.501936E-2,NaN,-6.975118E-2,NaN,6.34296E-2,NaN,6.3120596E-2,8.872599E-2,-6.835996E-2,4E0,2.16577E-2,NaN,3E0,4.7517005E-2,-5.649043E-2,8.420219E-2,9.293098E-2,6.6971235E-2,3.8562287E-2,5.3334314E-2,-6.467362E-2,5.991037E-2,9.308939E-3,5.6092154E-2,1.1105935E-2,-6.422931E-2,3.792034E-2,-7.743857E-2,-3.3060823E-2],"split_indices":[2,2,7,6,5,2,0,2,0,3,0,0,0,0,3,2,0,3,0,6,0,2,6,3,0,3,3,0,0,0,0,0,0,0,0,0,0,0,0],"split_type":[1,1,0,0,0,1,0,1,0,0,0,1,0,1,0,1,0,0,0,0,0,1,0,0,0,0,0,0,0,0,0,0,0,0,0,0,0,0,0],"sum_hessian":[2.8271655E2,1.5654285E2,1.261737E2,9.708702E1,5.9455833E1,1.2289065E2,3.2830524E0,9.5611404E1,1.4756144E0,5.2948456E1,6.507377E0,7.052563E1,5.2365017E1,6.3486603E1,3.21248E1,4.73253E1,5.6231556E0,4.7951714E1,2.2573917E1,6.0448906E1,3.037696E0,4.683269E0,2.7441534E1,4.4600628E1,2.7246723E0,1.8488144E1,2.946357E1,5.459568E1,5.8532267E0,2.2196195E0,2.4636495E0,2.2657553E1,4.7839813E0,2.6937647E0,4.1906864E1,8.416546E0,1.0071598E1,9.370834E0,2.0092735E1],"tree_param":{"num_deleted":"0","num_feature":"8","num_nodes":"39","size_leaf_vector":"0"}},{"base_weights":[4.1218238E-9,3.2197154E-1,-5.7095397E-1,5.129156E-1,1.7064092E-1,-1.9558357E-1,-5.931204E-1,5.6828773E-1,8.850361E-2,1.1637832E-1,6.75856E-2,-5.2947383E-2,1.694482E-1,-6.2112696E-2,-3.8379493E-1,6.1428285E-1,2.8549027E-1,3.7125832E-1,-3.6049673E-1,5.199537E-2,5.524804E-1,-1.3714847E-2,4.5274183E-2,-1.0426693E-1,-5.9137333E-2,6.33374E-2,1.0777879E-2,5.409047E-2,-2.105298E-1,-2.9704824E-2,6.0292047E-2,-5.9903443E-2,-3.561825E-3,1.02776095E-1,-6.451752E-2,5.925261E-2,2.0475661E-2,-3.6656958E-4,-1.3901035E-2,-5.693045E-2,4.0649895E-2,-1.5932443E-2,1.9627439E-2],"categories":[0,1,2,3,4,6,7,8,9,11,12,13,14,15,16,17,18,19,20,21,22,23,24,25,26,28,29,30,31,32,33,34,35,36,38,39,40,41,42,43,45,46,47,48,49,52,53,55,56,57,59,60,61,65,68,70,72,73,74,75,76,77,80,81,82,83,84,85,86,87,88,89,90,92,93,94,96,97,98,99,100,101,103,104,105,106,107,108,109,111,112,115,116,117,118,119,120,121,123,124,125,127,128,130,131,132,134,136,137,138,139,0,1,2,3,4,6,7,8,9,11,12,13,14,15,16,17,18,19,20,21,22,23,24,25,26,27,28,29,30,31,32,33,34,35,36,38,39,40,41,42,43,45,46,47,48,49,50,51,52,53,54,55,56,57,58,59,60,61,63,65,66,68,70,71,72,73,74,75,76,77,79,80,81,82,83,84,85,86,87,88,89,90,91,92,93,94,95,96,97,98,99,100,101,103,104,105,106,107,108,109,111,112,115,116,117,118,119,120,121,123,124,125,127,128,129,130,131,132,134,136,137,138,139,0,1,2,3,4,5,6,7,8,9,10,11,12,13,14,15,16,17,18,19,20,21,22,23,24,25,26,27,28,29,30,31,32,33,34,35,36,37,38,39,40,41,42,43,44,45,46,47,48,49,50,51,52,53,54,55,56,57,58,59,60,61,62,63,64,65,66,67,68,69,70,71,72,73,74,75,76,77,78,79,80,81,82,83,84,85,86,87,88,89,90,91,92,93,94,95,96,97,98,99,100,101,102,103,104,105,106,107,108,109,110,111,112,113,114,115,116,117,118,120,127,131,137,139,0,1,2,3,4,5,6,7,8,9,10,11,12,13,14,15,16,17,18,19,20,21,22,23,24,25,26,27,28,29,30,31,32,33,34,35,36,37,38,39,40,41,42,43,44,45,46,47,48,49,50,51,52,53,54,55,56,57,58,59,60,61,62,63,64,65,66,67,68,69,70,71,72,73,74,75,76,77,78,79,80,81,82,83,84,85,86,87,88,89,90,91,92,93,94,95,96,97,98,99,100,101,102,103,104,105,106,107,108,109,110,111,112,113,114,115,116,117,118,119,120,121,122,123,124,125,126,127,128,129,130,3,0,5,0,1,2,3,4,5,6,7,8,9,10,11,12,13,14,15,16,17,18,19,20,21,22,23,24,25,26,27,28,29,30,31,32,33,34,35,36,37,38,39,40,41,42,43,44,45,46,47,48,49,50,51,52,53,54,55,56,57,58,59,60,61,62,64,65,66,67,68,69,70,71,72,73,74,75,76,77,78,79,80,81,82,83,84,85,86,87,88,89,90,92,93,94,95,96,97,98,99,100,101,102,103,104,105,106,107,108,109,110,111,112,113,114,115,116,117,118,119,120,121,122,123,124,125,126,127,128,130,131,132,133,134,135,136,137,138,139,12],"categories_nodes":[0,1,2,5,7,12,14,20,23],"categories_segments":[0,111,234,358,489,490,491,492,629],"categories_sizes":[111,123,124,131,1,1,1,137,1],"default_left":[0,0,0,0,0,0,0,0,0,0,0,0,0,0,0,0,0,0,0,0,0,0,0,0,0,0,0,0,0,0,0,0,0,0,0,0,0,0,0,0,0,0,0],"id":7,"left_children":[1,3,5,7,9,11,13,15,17,19,-1,-1,21,-1,23,25,27,29,31,33,35,-1,-1,37,-1,-1,-1,-1,39,-1,-1,-1,-1,41,-1,-1,-1,-1,-1,-1,-1,-1,-1],"loss_changes":[5.069214E1,5.007435E0,7.113304E-1,1.7700443E0,2.6590245E0,9.47299E-1,3.0914307E-1,7.134857E-1,1.4191608E0,2.5371606E0,0E0,0E0,4.1984957E-1,0E0,7.2968984E-1,4.9168587E-1,1.5616701E0,1.2171307E0,3.2114542E-1,2.9245086E0,4.0929556E-2,0E0,0E0,2.4047837E-2,0E0,0E0,0E0,0E0,1.2506644E0,0E0,0E0,0E0,0E0,1.8965416E0,0E0,0E0,0E0,0E0,0E0,0E0,0E0,0E0,0E0],"parents":[2147483647,0,0,1,1,2,2,3,3,4,4,5,5,6,6,7,7,8,8,9,9,12,12,14,14,15,15,16,16,17,17,18,18,19,19,20,20,23,23,28,28,33,33],"right_children":[2,4,6,8,10,12,14,16,18,20,-1,-1,22,-1,24,26,28,30,32,34,36,-1,-1,38,-1,-1,-1,-1,40,-1,-1,-1,-1,42,-1,-1,-1,-1,-1,-1,-1,-1,-1],"split_conditions":[NaN,NaN,NaN,4E0,1E0,NaN,3.9237025E-1,NaN,8.665563E-2,9.594909E-2,6.75856E-2,-5.2947383E-2,NaN,-6.2112696E-2,NaN,6.3342375E-1,6.530991E-2,7E0,1E0,9.386251E-2,NaN,-1.3714847E-2,4.5274183E-2,NaN,-5.9137333E-2,6.33374E-2,1.0777879E-2,5.409047E-2,7.406829E-2,-2.9704824E-2,6.0292047E-2,-5.9903443E-2,-3.561825E-3,8.6814776E-2,-6.451752E-2,5.925261E-2,2.0475661E-2,-3.6656958E-4,-1.3901035E-2,-5.693045E-2,4.0649895E-2,-1.5932443E-2,1.9627439E-2],"split_indices":[2,2,2,6,5,2,3,0,3,3,0,0,1,0,0,3,3,6,7,3,2,0,0,2,0,0,0,0,3,0,0,0,0,3,0,0,0,0,0,0,0,0,0],"split_type":[1,1,1,0,0,1,0,1,0,0,0,0,1,0,1,0,0,0,0,0,1,0,0,1,0,0,0,0,0,0,0,0,0,0,0,0,0,0,0,0,0,0,0],"sum_hessian":[2.7375415E2,1.7532259E2,9.843158E1,7.645932E1,9.8863266E1,6.0362377E0,9.239534E1,6.7335236E1,9.124088E0,9.038574E1,8.477522E0,2.917316E0,3.1189218E0,7.9757E1,1.2638334E1,5.690745E1,1.0427782E1,5.704724E0,3.419364E0,7.9733665E1,1.0652073E1,1.7456057E0,1.373316E0,6.0259743E0,6.6123595E0,5.4599026E1,2.3084257E0,6.8236217E0,3.6041605E0,1.3958068E0,4.308917E0,1.4850867E0,1.9342774E0,7.5115E1,4.6186676E0,8.920706E0,1.7313681E0,1.8306752E0,4.195299E0,2.3279228E0,1.2762378E0,1.9565022E1,5.554998E1],"tree_param":{"num_deleted":"0","num_feature":"8","num_nodes":"43","size_leaf_vector":"0"}},{"base_weights":[9.013997E-10,3.6638787E-1,-4.7071564E-1,5.035654E-1,2.2032754E-1,-5.0710416E-1,3.928434E-1,5.1927245E-1,-1.8002119E-2,1.6468388E-1,6.038471E-2,-3.704018E-1,-6.747537E-2,3.776829E-3,5.886367E-2,5.6438804E-1,3.0002734E-1,2.1253648E-1,-6.544925E-2,-2.661533E-1,-6.3523196E-2,4.867754E-1,6.487387E-2,4.374027E-1,-4.7072753E-2,1.6036282E-1,6.0793348E-2,-1.9626293E-1,-7.1042866E-2,5.5198994E-2,1.1652416E-2,3.022414E-3,5.7776857E-2,6.0450792E-2,1.061624E-2,-2.4522293E-2,5.0232418E-2],"categories":[0,1,2,3,4,6,7,8,9,11,12,13,14,15,16,17,18,19,20,21,22,23,24,25,26,28,29,30,31,32,33,34,35,36,38,39,40,41,42,43,45,46,47,48,49,51,52,53,55,56,57,59,60,61,65,68,70,72,73,74,75,76,77,80,81,82,83,84,85,86,87,88,89,90,92,93,94,96,97,98,99,100,101,103,104,105,106,107,108,109,111,112,115,116,117,118,119,120,121,123,124,127,128,130,131,132,134,136,137,138,139,0,1,2,3,4,6,7,8,9,11,12,13,14,15,16,17,18,19,20,21,22,23,24,25,26,27,28,29,30,31,32,33,34,35,36,37,38,39,40,41,42,43,45,46,47,48,49,50,51,52,53,55,56,57,58,59,60,61,63,65,68,70,71,72,73,74,75,76,77,78,79,80,81,82,83,84,85,86,87,88,89,90,92,93,94,95,96,97,98,99,100,101,103,104,105,106,107,108,109,111,112,115,116,117,118,119,120,121,123,124,125,127,128,129,130,131,132,134,136,137,138,139,0,1,7,14,22,25,26,33,35,40,41,48,52,53,65,76,80,90,92,108,112,118,120,127,137,3,3,4,5,62],"categories_nodes":[0,1,5,7,11,16],"categories_segments":[0,111,233,258,259,262],"categories_sizes":[111,122,25,1,3,1],"default_left":[0,0,0,0,1,0,0,0,0,0,0,0,0,0,0,0,0,0,0,0,0,0,0,0,0,0,0,0,0,0,0,0,0,0,0,0,0],"id":8,"left_children":[1,3,5,7,9,11,13,15,-1,17,-1,19,-1,-1,-1,21,23,25,-1,27,-1,29,-1,31,-1,33,-1,35,-1,-1,-1,-1,-1,-1,-1,-1,-1],"loss_changes":[4.578901E1,2.8803253E0,3.8507843E0,9.117565E-1,1.4815326E0,2.3155785E0,3.435967E-1,5.701027E-1,0E0,2.7291045E0,0E0,1.5945282E0,0E0,0E0,0E0,8.265877E-2,1.7827721E0,1.2058735E0,0E0,1.3372576E0,0E0,7.977543E-1,0E0,7.345779E-1,0E0,1.312154E0,0E0,1.5759383E0,0E0,0E0,0E0,0E0,0E0,0E0,0E0,0E0,0E0],"parents":[2147483647,0,0,1,1,2,2,3,3,4,4,5,5,6,6,7,7,9,9,11,11,15,15,16,16,17,17,19,19,21,21,23,23,25,25,27,27],"right_children":[2,4,6,8,10,12,14,16,-1,18,-1,20,-1,-1,-1,22,24,26,-1,28,-1,30,-1,32,-1,34,-1,36,-1,-1,-1,-1,-1,-1,-1,-1,-1],"split_conditions":[NaN,NaN,4E0,9E0,3.7107366E-1,NaN,4E0,NaN,-1.8002119E-2,9.9380344E-2,6.038471E-2,NaN,-6.747537E-2,3.776829E-3,5.886367E-2,9.32349E-2,NaN,1E0,-6.544925E-2,1E0,-6.3523196E-2,8.900443E-2,6.487387E-2,6.34296E-2,-4.7072753E-2,4.7517005E-2,6.0793348E-2,2E0,-7.1042866E-2,5.5198994E-2,1.1652416E-2,3.022414E-3,5.7776857E-2,6.0450792E-2,1.061624E-2,-2.4522293E-2,5.0232418E-2],"split_indices":[2,2,7,6,3,2,6,0,0,3,0,0,0,0,0,3,2,5,0,7,0,3,0,3,0,3,0,6,0,0,0,0,0,0,0,0,0],"split_type":[1,1,0,0,0,1,0,1,0,0,0,1,0,0,0,0,1,0,0,0,0,0,0,0,0,0,0,0,0,0,0,0,0,0,0,0,0],"sum_hessian":[2.6349817E2,1.4829353E2,1.1520464E2,7.520993E1,7.308361E1,1.10942535E2,4.262105E0,7.375559E1,1.4543417E0,6.507193E1,8.011682E0,6.287958E1,4.8062958E1,1.9388535E0,2.3232512E0,5.9862938E1,1.38926525E1,6.2180187E1,2.8917384E0,4.6557533E1,1.6322048E1,3.470294E1,2.5159996E1,1.2158148E1,1.7345045E0,5.6173523E1,6.006667E0,4.1474766E1,5.0827675E0,2.9088552E1,5.614389E0,3.4283597E0,8.729788E0,5.0052047E0,5.1168316E1,3.936488E1,2.1098874E0],"tree_param":{"num_deleted":"0","num_feature":"8","num_nodes":"37","size_leaf_vector":"0"}}]},"name":"gbtree"},"learner_model_param":{"base_score":"5E-1","num_class":"0","num_feature":"8","num_target":"1"},"objective":{"lambda_rank_param":{"fix_list_weight":"0","num_pairsample":"1"},"name":"rank:pairwise"}},"version":[1,6,1]}